FANN_FLO_2.1
num_layers=3
learning_rate=0.700000
connection_rate=1.000000
network_type=0
learning_momentum=0.000000
training_algorithm=1
train_error_function=1
train_stop_function=1
cascade_output_change_fraction=0.010000
quickprop_decay=-0.000100
quickprop_mu=1.750000
rprop_increase_factor=1.200000
rprop_decrease_factor=0.500000
rprop_delta_min=0.000000
rprop_delta_max=50.000000
rprop_delta_zero=0.100000
cascade_output_stagnation_epochs=12
cascade_candidate_change_fraction=0.010000
cascade_candidate_stagnation_epochs=12
cascade_max_out_epochs=150
cascade_min_out_epochs=50
cascade_max_cand_epochs=150
cascade_min_cand_epochs=50
cascade_num_candidate_groups=2
bit_fail_limit=9.99999977648258209229e-03
cascade_candidate_limit=1.00000000000000000000e+03
cascade_weight_multiplier=4.00000005960464477539e-01
cascade_activation_functions_count=10
cascade_activation_functions=3 5 7 8 10 11 14 15 16 17 
cascade_activation_steepnesses_count=4
cascade_activation_steepnesses=2.50000000000000000000e-01 5.00000000000000000000e-01 7.50000000000000000000e-01 1.00000000000000000000e+00 
layer_sizes=5 5 2 
scale_included=0
neurons (num_inputs, activation_function, activation_steepness)=(0, 0, 0.00000000000000000000e+00) (0, 0, 0.00000000000000000000e+00) (0, 0, 0.00000000000000000000e+00) (0, 0, 0.00000000000000000000e+00) (0, 0, 0.00000000000000000000e+00) (5, 5, 1.00000000000000000000e+00) (5, 5, 1.00000000000000000000e+00) (5, 5, 1.00000000000000000000e+00) (5, 5, 1.00000000000000000000e+00) (0, 5, 1.00000000000000000000e+00) (5, 5, 1.00000000000000000000e+00) (0, 5, 1.00000000000000000000e+00) 
connections (connected_to_neuron, weight)=(0, 5.48145771026611328125e-01) (1, 8.77715170383453369141e-01) (2, 1.18826258182525634766e+00) (3, 1.10098564624786376953e+00) (4, 1.20640194416046142578e+00) (0, 1.12032723426818847656e+00) (1, 9.94018137454986572266e-01) (2, 5.37451744079589843750e-01) (3, 4.67716872692108154297e-01) (4, -1.43043529987335205078e+00) (0, 3.41331541538238525391e-01) (1, 5.66565990447998046875e-01) (2, 7.12529838085174560547e-01) (3, 8.99450302124023437500e-01) (4, -1.18141281604766845703e+00) (0, 2.80870288610458374023e-01) (1, 5.05038797855377197266e-01) (2, 4.21716570854187011719e-01) (3, 4.64593440294265747070e-01) (4, -1.00160980224609375000e+00) (5, 1.38241589069366455078e+00) (6, 5.08065521717071533203e-01) (7, 1.30855131149291992188e+00) (8, 3.68365317583084106445e-01) (9, -3.82822543382644653320e-01) 
